207 30
81 -0.24459724 -0.6713383 0.08769308 -0.2429254 0.3650621 0.056812614 -0.17085646 0.3179257 0.24622232 -0.106002115 -0.2631384 0.1734098 0.10898757 -0.31546596 0.021909157 -0.19414845 -0.17451133 0.10124565 0.019053573 -0.0056034136 0.19654882 -0.09382554 -0.059782624 0.045876708 -0.2464661 0.24437381 0.05698259 -0.06004516 -0.07592368 -0.21867844
82 -0.26452342 -0.71367204 0.10307429 -0.26906636 0.35553575 0.06671863 -0.14961323 0.31395417 0.24448453 -0.07662135 -0.30084473 0.21563885 0.107822694 -0.34478384 0.019621706 -0.19074823 -0.18839608 0.12068671 0.013654999 0.0052695624 0.2016661 -0.102811 -0.03763295 0.04876546 -0.29707208 0.2332214 0.066552654 -0.0633053 -0.07339349 -0.24363053
146 -0.29068902 -0.7153406 0.0954945 -0.26652208 0.35997048 0.05261064 -0.17391978 0.33220017 0.2640429 -0.08282024 -0.30470797 0.22301549 0.09186894 -0.3299893 0.040394377 -0.19726335 -0.18145855 0.102815896 0.018627502 -0.008024928 0.1770566 -0.10627558 -0.053222302 0.062011145 -0.29566762 0.2309131 0.056162033 -0.054481618 -0.057740055 -0.22855683
60 -0.22711703 -0.66695845 0.059869595 -0.24901928 0.35385242 0.07806387 -0.15773249 0.3225881 0.2582728 -0.10590703 -0.30285692 0.18447901 0.09992551 -0.3174771 0.0135479905 -0.195772 -0.17894289 0.10181679 -0.0072907424 -0.02732102 0.17571162 -0.10640369 -0.053599633 0.049922965 -0.26901343 0.23774026 0.06998735 -0.032119263 -0.057750423 -0.2169203
203 -0.20266333 -0.59120625 0.053903785 -0.1824819 0.31580397 0.02339856 -0.1724233 0.26514974 0.266326 -0.121652424 -0.25017825 0.12407812 0.11012939 -0.27044 -0.0065857302 -0.23062374 -0.16816019 0.088376835 0.02343516 -0.016366305 0.16526489 -0.04616591 -0.018851437 0.08175053 -0.21926822 0.19976741 0.042724106 -0.06331603 -0.03997383 -0.15507802
45 -0.17401856 -0.6100242 0.020056495 -0.19017245 0.32403716 0.02144594 -0.15275624 0.2956485 0.27879807 -0.11482117 -0.2602846 0.14322197 0.11873349 -0.285809 0.00065777946 -0.2447232 -0.15686733 0.09851522 0.0048363796 -0.0021185998 0.17060114 -0.06460276 -0.013812888 0.07002583 -0.21141708 0.21950914 0.02419717 -0.067171775 -0.0553412 -0.16066168
76 -0.2682041 -0.6655299 0.06504087 -0.23452958 0.37304056 0.04650041 -0.14276934 0.31099236 0.25403315 -0.0980695 -0.2781594 0.20698786 0.092412524 -0.3327757 0.034510463 -0.20855682 -0.14985389 0.103779025 0.028552558 0.008962696 0.16391732 -0.10656795 -0.058242254 0.03266158 -0.2622866 0.222674 0.03982534 -0.055016756 -0.06635164 -0.24193706
63 -0.22374289 -0.6340579 0.07612161 -0.24019606 0.3555208 0.06762312 -0.14723061 0.29733837 0.24942751 -0.08782235 -0.26004583 0.16217192 0.10618128 -0.29847512 0.014508368 -0.22611107 -0.15734078 0.09112678 0.0014200027 -0.014041986 0.17170854 -0.068483576 -0.060212117 0.07370307 -0.25175333 0.22942863 0.04385407 -0.042749304 -0.06355708 -0.21371353
7 -0.18565162 -0.6623964 0.018350491 -0.20278794 0.3225464 0.021590644 -0.1709179 0.3108927 0.30400652 -0.1275054 -0.27260414 0.14192347 0.109285474 -0.329676 0.013576107 -0.26157972 -0.17138183 0.092015035 0.0031693666 -0.020354988 0.19752656 -0.0661576 -0.01645247 0.10110594 -0.21328786 0.2175496 0.018850485 -0.06978358 -0.067251235 -0.20010169
64 -0.26409072 -0.7911231 0.046000436 -0.18577443 0.3649155 0.01699413 -0.15248284 0.32194638 0.3196498 -0.16983202 -0.28477305 0.18974502 0.14138491 -0.365567 0.031009989 -0.29092497 -0.21633427 0.0727523 -0.026386978 -0.019764015 0.27426997 -0.07815387 -0.016578546 0.08010632 -0.25529993 0.24688137 0.06670897 -0.097819515 -0.08546253 -0.20078428
141 -0.21430722 -0.6276345 0.064170085 -0.24208046 0.35534424 0.067377105 -0.1361313 0.30666122 0.24085206 -0.13546814 -0.25917652 0.16593724 0.09406094 -0.31767124 0.0055341963 -0.22058856 -0.16240154 0.11446706 -0.0018691833 -0.011855442 0.15497072 -0.073440544 -0.071051374 0.06679943 -0.25489283 0.20372331 0.06884475 -0.05765387 -0.06655205 -0.20891915
177 -0.2292336 -0.71543455 0.030035825 -0.21052411 0.37031993 -0.0053100293 -0.18462573 0.310551 0.32176945 -0.12910803 -0.2945219 0.14857519 0.117196724 -0.33121768 -0.00012657148 -0.26808393 -0.17729843 0.09395341 0.009824263 -0.0012944043 0.19694981 -0.04303382 -0.024670621 0.08287549 -0.23253459 0.24451618 0.020608334 -0.063831374 -0.07137001 -0.19815421
171 -0.21336165 -0.7073355 0.022123769 -0.21023305 0.34649172 0.0147003485 -0.18835425 0.34059688 0.3183112 -0.12793086 -0.27218416 0.15509261 0.10359792 -0.3294148 -0.008635009 -0.2769852 -0.172494 0.10795249 0.029598637 -0.03004211 0.2180724 -0.04660606 -0.025762694 0.108812235 -0.23264469 0.2527558 0.038611148 -0.07401029 -0.045182515 -0.19879608
43 -0.28190532 -0.6897542 0.0852627 -0.25841293 0.3804847 0.047280684 -0.1485309 0.32793364 0.2675529 -0.08731381 -0.2766043 0.20742589 0.08576255 -0.33215132 0.038142733 -0.21198472 -0.18906069 0.10929821 0.008060871 -0.004107052 0.19535871 -0.09468229 -0.033512153 0.04124361 -0.28501892 0.2617041 0.051514607 -0.05114222 -0.069579855 -0.22798294
139 -0.20421496 -0.7373415 0.02714515 -0.20140357 0.35101625 0.010177688 -0.19807279 0.32484576 0.3343154 -0.13498162 -0.27085504 0.12382924 0.09824885 -0.32483703 -0.0005711919 -0.30351266 -0.17910065 0.0718881 0.02075518 -0.012774303 0.22227368 -0.05958546 -0.027887452 0.09194155 -0.22208023 0.21934675 0.02596773 -0.064764656 -0.07091468 -0.19987774
22 -0.23881693 -0.79591596 0.044743754 -0.24758603 0.40550655 0.02057169 -0.2051776 0.35157672 0.27805978 -0.17330456 -0.34692124 0.20165533 0.15957612 -0.38986716 0.023055859 -0.2983727 -0.2617404 0.11932513 0.006680236 0.0050496496 0.2474844 -0.08728754 0.009584024 0.10040012 -0.33216074 0.3274673 0.05542974 -0.07454487 -0.0728742 -0.23542719
1 -0.21405292 -0.68057466 0.04401155 -0.21010675 0.33324185 -0.017277662 -0.17586185 0.3157312 0.30373245 -0.120968506 -0.2730956 0.12735999 0.11390519 -0.31575748 -0.006629749 -0.28474566 -0.1590136 0.082718946 0.035393193 -0.027195431 0.20102675 -0.05163134 -0.011827662 0.10132745 -0.2142204 0.22470343 0.03551194 -0.0459211 -0.047309633 -0.19924983
109 -0.21082132 -0.6748115 0.0357227 -0.18753952 0.35369772 0.00051773654 -0.18074787 0.3070013 0.27801806 -0.11181582 -0.25584957 0.12927227 0.10445207 -0.31789488 -0.010380448 -0.25902584 -0.17499289 0.092555314 0.011106435 -0.012615904 0.18087518 -0.055326227 -0.0012246034 0.104170494 -0.22919403 0.22223257 0.05167743 -0.075845055 -0.07392626 -0.18899864
120 -0.21602516 -0.7233928 0.022432169 -0.18419346 0.3408983 -0.0024627477 -0.18049763 0.329966 0.33356115 -0.12742248 -0.27803436 0.12032672 0.11943381 -0.3421336 -0.0033211356 -0.3087163 -0.1631416 0.08391682 0.040137537 -0.024333462 0.20250653 -0.085853115 -0.024833499 0.10023912 -0.23049267 0.23222572 0.043272857 -0.059955135 -0.07460636 -0.21004607
158 -0.251702 -0.67744386 0.047952577 -0.21783839 0.34333467 0.043872565 -0.1488576 0.3184131 0.25414062 -0.12236916 -0.27406833 0.17579795 0.11217737 -0.34170353 0.008723808 -0.21675447 -0.18776774 0.115362756 0.009561332 -0.0090556415 0.18903068 -0.09792621 -0.030777551 0.050370276 -0.26343423 0.22742689 0.067524396 -0.0591368 -0.060883664 -0.20714764
72 -0.21303584 -0.68138605 0.044602565 -0.24378742 0.36634615 0.074146725 -0.18193719 0.29915318 0.25913244 -0.1369014 -0.28263143 0.18608823 0.09091724 -0.33405226 0.008455237 -0.22315632 -0.17079212 0.12367444 -0.010558816 -0.033917677 0.17733315 -0.07934012 -0.059902996 0.053823616 -0.24976307 0.2437496 0.07740983 -0.039171994 -0.077074 -0.22908911
20 -0.23890096 -0.77079767 0.04711405 -0.2384886 0.3883448 0.022225691 -0.18381836 0.35131562 0.26350954 -0.17645705 -0.34815478 0.1778791 0.16126046 -0.3781571 0.0026658485 -0.2882264 -0.26089522 0.12484078 -0.021855615 -0.025129054 0.24074377 -0.09024961 0.0042959196 0.09899585 -0.30293387 0.31931245 0.07962177 -0.05620515 -0.077360086 -0.25632718
160 -0.24213837 -0.7173696 0.06669638 -0.19910088 0.37802887 0.025060872 -0.18978713 0.33490947 0.27676895 -0.14385003 -0.28276497 0.16048573 0.14492786 -0.337949 0.014316082 -0.2665963 -0.20273818 0.091713674 -0.020667315 -0.002765638 0.21207123 -0.06257469 -0.008024829 0.07532609 -0.27689976 0.2895361 0.06560884 -0.06891007 -0.10014739 -0.18677194
159 -0.21462728 -0.6854254 0.070231356 -0.1814783 0.32987484 0.019411417 -0.18412578 0.32221672 0.25930107 -0.14389469 -0.27678454 0.1597754 0.15032578 -0.33703533 0.00481758 -0.2638815 -0.21241431 0.10570917 -0.009975473 -0.0022181019 0.1865717 -0.07011646 0.019167982 0.0842807 -0.2688236 0.2964732 0.059349906 -0.066782214 -0.100399084 -0.18548861
85 -0.21428493 -0.69887096 0.04199516 -0.21445766 0.33752757 -0.0004155484 -0.18491279 0.30391282 0.2884798 -0.11835185 -0.2924657 0.13258065 0.09742531 -0.313464 0.020391652 -0.275177 -0.19491655 0.11263674 0.00044817527 -0.032028075 0.21479984 -0.048453808 -0.030989204 0.0805536 -0.24003918 0.2251474 0.03012045 -0.06449063 -0.07320928 -0.19522485
155 -0.24331883 -0.7211581 0.062055472 -0.20304427 0.34430137 0.029757438 -0.1993205 0.30958098 0.26491427 -0.1437175 -0.29538417 0.15463066 0.15213078 -0.35416043 0.025432082 -0.27181402 -0.23067999 0.10413879 -0.0133087635 -0.011457836 0.198692 -0.058441788 7.5876334e-05 0.10265798 -0.2633859 0.28279704 0.03970269 -0.06909525 -0.0869638 -0.19441485
129 -0.22910683 -0.7247996 0.048923235 -0.2028147 0.36660826 -0.0044491277 -0.20209523 0.3258691 0.32731932 -0.1291946 -0.26913023 0.1334888 0.10664716 -0.3453505 0.018611489 -0.30508718 -0.17814657 0.08524549 0.028329361 -0.047549006 0.21711297 -0.05365949 -0.032102566 0.094831854 -0.21664149 0.22646658 0.038027916 -0.074367404 -0.071355805 -0.22050615
25 -0.21941808 -0.69991744 0.023822255 -0.20187503 0.3295594 0.00023982645 -0.1955108 0.3000931 0.32493216 -0.12881517 -0.273301 0.1128731 0.1048595 -0.31123382 -0.0084361285 -0.30352986 -0.1563245 0.07858512 0.03998533 -0.019981546 0.21010512 -0.07216767 -0.0027303332 0.11246392 -0.20896704 0.20448066 0.040413644 -0.06907386 -0.082388334 -0.19111949
28 -0.21896191 -0.6816936 0.04984803 -0.19925687 0.33434173 0.023634741 -0.17016752 0.30284038 0.27318567 -0.12447097 -0.2601313 0.15576741 0.108749814 -0.30275753 -0.0060253157 -0.26999375 -0.17871168 0.08294102 0.021793718 -0.0073837447 0.1837524 -0.060552996 -0.018388752 0.08369232 -0.23404507 0.24038178 0.019827807 -0.05397183 -0.041234817 -0.19520946
131 -0.25716767 -0.67309463 0.07440132 -0.24322778 0.35789317 0.06537852 -0.14043847 0.30847663 0.23686688 -0.08033709 -0.28581306 0.20896752 0.086494416 -0.32125613 0.019293379 -0.20794615 -0.15858527 0.09614022 0.011382817 -0.00015041692 0.19523725 -0.08724866 -0.05113478 0.04984495 -0.24286947 0.23528461 0.06448335 -0.0404563 -0.06077965 -0.22631782
113 -0.23281887 -0.7274206 0.066112466 -0.24767941 0.381767 0.07382526 -0.17056036 0.34498513 0.278087 -0.153441 -0.3233343 0.17467126 0.10727898 -0.3537195 0.0013948593 -0.26327935 -0.20233752 0.10684952 -0.002370044 -0.028604468 0.2057143 -0.09326418 -0.06340179 0.08895193 -0.28680813 0.25711933 0.051956415 -0.050303403 -0.09224823 -0.22992575
30 -0.26326528 -0.8442732 0.027041057 -0.17847262 0.3595161 0.021051602 -0.16232853 0.3015729 0.33024567 -0.15863581 -0.3061753 0.18806589 0.14144242 -0.37889808 0.015661977 -0.32118785 -0.20909747 0.07901192 -0.03937516 -0.012975277 0.2805541 -0.10027408 0.004394269 0.06932497 -0.24731383 0.2455537 0.07060665 -0.1002998 -0.11065331 -0.2026318
154 -0.20712036 -0.6615698 0.07205895 -0.20242082 0.33425272 0.011873575 -0.17158554 0.33175796 0.2576171 -0.1257712 -0.2674582 0.1486408 0.14561702 -0.31983045 0.014686505 -0.23615023 -0.21835145 0.09083878 -0.028865477 -0.0221973 0.18449728 -0.069087625 -0.004456816 0.09358471 -0.27877825 0.26934618 0.03962866 -0.08359124 -0.10197469 -0.18329129
137 -0.23441626 -0.61707103 0.05202955 -0.22725917 0.34915796 0.067937456 -0.1571632 0.29459518 0.25681314 -0.093557216 -0.2730661 0.16707276 0.10629495 -0.29858878 0.014479634 -0.22329496 -0.15140279 0.10115452 0.019634979 -0.022050569 0.19002244 -0.073199295 -0.038330548 0.063997015 -0.2491512 0.20627327 0.052457646 -0.062316835 -0.0749462 -0.19433793
147 -0.20914699 -0.6979797 0.053305253 -0.19846568 0.34470683 0.0042293994 -0.1872731 0.3295411 0.31690022 -0.11592096 -0.28269488 0.13087532 0.10410407 -0.3500676 0.0075625256 -0.29775038 -0.19419615 0.09089313 0.018822009 -0.032395087 0.19185017 -0.080952555 -0.014659927 0.095015325 -0.2333066 0.24407303 0.03682002 -0.060455594 -0.07097099 -0.22049753
162 -0.21613556 -0.6574417 0.0633772 -0.17748979 0.33702382 0.030191584 -0.17165366 0.31464645 0.27085504 -0.12798391 -0.26213276 0.15271093 0.14064282 -0.34876668 0.0073107705 -0.24133429 -0.21787079 0.1016834 -0.013543322 0.0013331987 0.19768739 -0.068602785 -0.006089992 0.0891494 -0.25631034 0.2765253 0.051622722 -0.058997475 -0.08116255 -0.18609974
184 -0.17861417 -0.6279016 0.018237315 -0.18092416 0.30976573 -0.02053095 -0.17020102 0.29662094 0.28744203 -0.106524475 -0.2456444 0.13501233 0.09381012 -0.31003082 -0.010465747 -0.2707094 -0.17304969 0.0684194 0.002466771 -0.00746789 0.1823714 -0.032672424 0.0059781587 0.09747645 -0.23107985 0.21665859 0.017876575 -0.04624839 -0.040329836 -0.18177289
16 -0.26304305 -0.7829543 0.05336423 -0.19834153 0.3696068 0.028535763 -0.16804169 0.30972964 0.31548676 -0.1524648 -0.29498532 0.19012351 0.13141966 -0.34724408 0.030574737 -0.2977237 -0.2249667 0.06988722 -0.034392487 -0.042070407 0.24957605 -0.08090891 -0.0025398864 0.075229935 -0.25016448 0.26012745 0.06196312 -0.09189564 -0.09392744 -0.22243309
47 -0.22365537 -0.6455978 0.043594748 -0.22876683 0.34446317 0.0502497 -0.17182249 0.3046224 0.23854882 -0.11205859 -0.27828673 0.16787454 0.10846436 -0.32627872 0.019343343 -0.20018327 -0.16659063 0.09955645 0.010956254 -0.001030163 0.18140578 -0.07727634 -0.05361204 0.069257624 -0.2284187 0.22726549 0.07175366 -0.0351588 -0.07838789 -0.22339594
130 -0.24187623 -0.66142786 0.07339892 -0.22093347 0.35483885 0.04873764 -0.14625113 0.2934215 0.24955374 -0.10258568 -0.25593522 0.17284276 0.10114149 -0.29617035 0.012179874 -0.20203547 -0.17042503 0.096536666 0.022004617 -0.014373268 0.17165013 -0.07778474 -0.042618103 0.058115005 -0.25120032 0.2325787 0.0354005 -0.04232374 -0.059001792 -0.21193056
69 -0.23039053 -0.6663385 0.045863595 -0.22216581 0.35438672 0.06776418 -0.1574116 0.30234924 0.24814095 -0.12723534 -0.2853504 0.1916752 0.09371251 -0.30686224 0.012437739 -0.20764758 -0.18711296 0.108973324 0.01534296 -0.026733637 0.18846253 -0.070539996 -0.03887092 0.044723578 -0.26643297 0.2395776 0.05220726 -0.05713654 -0.08674698 -0.21507648
183 -0.199463 -0.636438 0.025721364 -0.18864474 0.31499144 -0.026107997 -0.15077212 0.3120166 0.27718958 -0.12524398 -0.25944248 0.112874664 0.09075419 -0.30516857 0.013408327 -0.26414707 -0.17527728 0.08559065 0.010206008 -0.018156396 0.17146747 -0.042249132 -0.017402343 0.097551145 -0.22834216 0.20595086 0.011229024 -0.057527766 -0.036975626 -0.18540978
187 -0.23429322 -0.6906915 0.06218669 -0.20756552 0.3361645 0.034836385 -0.1669217 0.31089768 0.2535145 -0.12378695 -0.2593699 0.15616001 0.120070614 -0.33021763 0.027004516 -0.24333912 -0.20129111 0.100384474 -0.015666693 -0.007690717 0.20371023 -0.062206298 -0.005421632 0.09759494 -0.26420164 0.24855609 0.040746566 -0.057376888 -0.085412845 -0.18632771
95 -0.22999756 -0.7540147 0.05722719 -0.2147467 0.39398038 0.008637225 -0.1954385 0.3508007 0.3329387 -0.13931373 -0.28267235 0.13431688 0.10211519 -0.36374646 -0.018356232 -0.29560184 -0.18583594 0.10133184 0.03974242 -0.054347277 0.21046726 -0.061240647 -0.014736622 0.12125589 -0.24458878 0.23013179 0.033536486 -0.06846706 -0.0694687 -0.22520468
198 -0.19693577 -0.6488278 0.05528516 -0.19437766 0.30376884 0.026969755 -0.18621154 0.29346862 0.25733405 -0.120006375 -0.27214584 0.1489253 0.14320296 -0.29699618 0.012252928 -0.2499235 -0.20449463 0.088229775 -0.004792863 0.0040554022 0.1702846 -0.058940746 -0.019353746 0.08220023 -0.25623465 0.26897976 0.05897706 -0.0755883 -0.085525915 -0.17978328
79 -0.20278929 -0.6927563 0.026580175 -0.22559378 0.36221012 -0.0105522815 -0.17674254 0.34184712 0.28730023 -0.11006467 -0.273393 0.12995595 0.12053522 -0.3406545 -0.01363956 -0.28693217 -0.15897338 0.098769166 0.038187277 -0.0062424615 0.19760038 -0.06271704 -0.010831035 0.09006731 -0.2354795 0.23832732 0.037332244 -0.053443562 -0.0508319 -0.19745845
86 -0.2700644 -0.7902318 0.09598038 -0.24552816 0.40498272 0.05732974 -0.18466407 0.3354737 0.31246808 -0.107330345 -0.31773725 0.2245087 0.13509615 -0.36925033 0.033188548 -0.23627926 -0.18801068 0.12195571 0.0035052337 -0.00033420435 0.21771128 -0.09829956 -0.038548477 0.059092674 -0.30515695 0.28054336 0.039667346 -0.061749753 -0.09213003 -0.24067917
107 -0.20874424 -0.706355 0.018846685 -0.22719942 0.34988204 -0.0029847552 -0.18566155 0.34393367 0.3228496 -0.14777444 -0.29859665 0.13504215 0.09858482 -0.34697464 0.0034965547 -0.29621345 -0.18691581 0.114305995 0.03795278 -0.0038229865 0.20296709 -0.05269016 -0.025938906 0.09074502 -0.23261842 0.2386573 0.028442338 -0.0838409 -0.06627302 -0.21805462
2 -0.18570538 -0.6677516 0.029047564 -0.20435722 0.32990354 0.0006985138 -0.16713291 0.32144025 0.27874792 -0.12453349 -0.2707064 0.14125594 0.11131856 -0.32376185 -0.0012032234 -0.2886541 -0.1784846 0.09913816 0.0147532895 -0.02011473 0.19434851 -0.048332367 -0.0014576277 0.09178381 -0.23576716 0.21975909 0.02082137 -0.05775868 -0.041303914 -0.18519543
188 -0.21626186 -0.6959517 0.08409572 -0.21028465 0.3580894 0.033404622 -0.1660677 0.32154137 0.28035447 -0.13513872 -0.2587981 0.14774297 0.15567328 -0.353492 0.024032246 -0.24123423 -0.21351804 0.09069185 -0.008796967 -0.014323533 0.19613396 -0.07106882 0.0053827623 0.07963102 -0.28346094 0.280243 0.04112054 -0.08645562 -0.10540977 -0.1930981
166 -0.2869172 -0.82882035 0.040898517 -0.1936832 0.36690167 -0.0013572943 -0.1631308 0.28563437 0.32841247 -0.180735 -0.27786872 0.17939743 0.15711176 -0.37295038 0.03744835 -0.30117944 -0.22182365 0.07393176 -0.037479475 -0.03452783 0.29048467 -0.09193179 -0.0032609962 0.098736346 -0.24926993 0.2461632 0.0551343 -0.10423204 -0.103560716 -0.2089043
78 -0.19736819 -0.6533332 0.030996308 -0.19509622 0.33807504 -0.011830986 -0.15796608 0.29815367 0.2831485 -0.11314521 -0.27295598 0.1203767 0.10498852 -0.32429072 0.018526841 -0.2713003 -0.16414599 0.07507849 0.00966253 -0.02498673 0.1764668 -0.057299662 -0.0075338087 0.103157535 -0.21208471 0.2273609 0.028328894 -0.051731206 -0.044046648 -0.20246938
96 -0.22637624 -0.7420758 0.059219886 -0.24083744 0.3757537 0.01772574 -0.19537635 0.31930494 0.2801739 -0.15133785 -0.32731858 0.17790668 0.14043242 -0.36415 0.015532768 -0.25685778 -0.21604581 0.11976781 -0.019814415 -0.0073662917 0.22764023 -0.06697288 -0.0060166437 0.078523286 -0.2968547 0.30012068 0.043934338 -0.06119372 -0.09304005 -0.22044268
168 -0.23108928 -0.74423206 0.037075862 -0.2242015 0.38372284 0.034691654 -0.22143061 0.32820666 0.32878497 -0.121498905 -0.3127417 0.17631704 0.13900138 -0.34909302 -0.0013601934 -0.3166384 -0.1916447 0.11717506 0.027252628 -0.022450393 0.20847443 -0.057578977 -0.03263639 0.08597845 -0.23608816 0.25800422 0.061323483 -0.07128125 -0.0763479 -0.21472931
163 -0.20702228 -0.6867848 0.07213809 -0.19927903 0.33520645 0.014923029 -0.17570414 0.31971544 0.25393423 -0.15531969 -0.28764609 0.169293 0.13422744 -0.34439155 -0.0027233248 -0.26877147 -0.20808583 0.098984644 -0.023384945 -0.00028913943 0.21543148 -0.06441676 -0.00066243677 0.094631255 -0.24626443 0.25982156 0.03020689 -0.05739105 -0.103273064 -0.19969557
27 -0.2050159 -0.71842355 0.027755994 -0.22730796 0.35698146 0.020027101 -0.17990172 0.3376079 0.28991735 -0.122213736 -0.290002 0.14108537 0.108446725 -0.31622213 0.0029112033 -0.29093117 -0.16720052 0.08812201 0.015343128 -0.03538043 0.22027701 -0.05399366 -0.013874019 0.110123515 -0.23416536 0.22737151 0.021534886 -0.04929463 -0.07007579 -0.1976718
123 -0.20025393 -0.6438815 0.04337452 -0.20261462 0.3352932 0.010841263 -0.17349394 0.2994521 0.29268342 -0.12502936 -0.25241277 0.13148983 0.0939194 -0.30569696 -0.0076022986 -0.28570235 -0.17965987 0.09472683 0.017815223 -0.029371092 0.19880342 -0.04843107 -0.0008091585 0.07801832 -0.23370816 0.22577032 0.040986404 -0.060165677 -0.04680673 -0.1899462
97 -0.23285894 -0.70250356 0.05730312 -0.22155847 0.37909833 0.012482589 -0.18565972 0.3262521 0.28585994 -0.1384026 -0.2913886 0.1740427 0.15408343 -0.35544714 0.008362005 -0.26641166 -0.214193 0.104415216 -0.028934157 -0.008634832 0.20438527 -0.084384784 -0.0032040807 0.08582751 -0.2859472 0.27583873 0.04768022 -0.07189973 -0.10405278 -0.21221033
135 -0.21220922 -0.669071 0.02980861 -0.19132368 0.31904843 -0.008007953 -0.15642346 0.31274095 0.29039124 -0.12883817 -0.24383885 0.15056519 0.09959144 -0.30087864 0.004022181 -0.27844182 -0.16818494 0.07652868 -0.0041892035 -0.0282346 0.18136992 -0.06489113 0.0009628544 0.09011162 -0.21662873 0.20783749 0.028303612 -0.06053324 -0.061418425 -0.19162335
197 -0.26526508 -0.6955099 0.08405864 -0.23465814 0.3474636 0.03785319 -0.18366358 0.32343653 0.27589807 -0.091688976 -0.27319464 0.18487419 0.10650647 -0.34532824 0.013972311 -0.21011409 -0.16226882 0.09244742 0.023287896 -0.012875282 0.20990892 -0.09529888 -0.051759835 0.072092175 -0.25853452 0.24844575 0.05751292 -0.0744527 -0.06497097 -0.23710267
157 -0.23410834 -0.6803988 0.04926672 -0.18860877 0.33200067 0.04489329 -0.18966936 0.33624548 0.25839812 -0.14986236 -0.2673694 0.17755616 0.1303056 -0.34965882 0.009312274 -0.26035705 -0.2293653 0.10759535 -0.034714945 0.0104940925 0.1850627 -0.078689426 0.0003251676 0.080022864 -0.28663194 0.284783 0.057544407 -0.0762062 -0.090971254 -0.19334096
128 -0.22925058 -0.71436954 0.051730253 -0.21823764 0.3521868 0.016974108 -0.17196168 0.333873 0.2724956 -0.1564235 -0.3050393 0.17137761 0.13856742 -0.36734298 0.008816976 -0.25875753 -0.21625257 0.12349306 -0.009125606 -0.018328467 0.19568348 -0.06760872 -0.01408715 0.08059118 -0.2842571 0.29533648 0.06564284 -0.080988646 -0.09700009 -0.20299134
125 -0.21551983 -0.70773864 0.041182287 -0.2097453 0.36829203 0.014460791 -0.20111997 0.30608562 0.29205146 -0.14107698 -0.27066293 0.12878667 0.09558586 -0.32401687 -0.007993732 -0.27790698 -0.16929254 0.08793997 0.034826122 -0.04993065 0.21903586 -0.093533464 -0.009190755 0.09718294 -0.2366746 0.24638078 0.032220103 -0.07091282 -0.082346104 -0.22807251
91 -0.2970231 -0.8693556 0.07837067 -0.20285235 0.40552658 0.04365495 -0.19780715 0.33426714 0.34916008 -0.1569489 -0.30854413 0.18562967 0.17376532 -0.40264595 0.009840806 -0.3234016 -0.24220915 0.095769696 -0.032134563 -0.0415202 0.28517613 -0.084499516 0.000655612 0.09035841 -0.2982845 0.2846835 0.06892347 -0.10814716 -0.10308319 -0.21749023
161 -0.21671376 -0.6995908 0.073426 -0.19201182 0.35440657 0.038211353 -0.1923593 0.32616678 0.27226597 -0.14762895 -0.2982099 0.16705522 0.13746361 -0.34147462 0.011117535 -0.27095175 -0.22321446 0.10945916 -0.02720837 -0.016949173 0.2097676 -0.069265656 0.0071087996 0.09412153 -0.28416392 0.26164967 0.04519848 -0.080371544 -0.094698004 -0.2007512
126 -0.24314414 -0.66480964 0.014236863 -0.19073747 0.33422127 0.0484999 -0.19114634 0.30160668 0.2557351 -0.11441344 -0.2700009 0.18131202 0.12185286 -0.32013318 0.024394903 -0.27268368 -0.16252725 0.098845236 0.017864335 -0.024457404 0.20908342 -0.0544948 -0.0075320415 0.0778704 -0.22621435 0.21221563 0.06140029 -0.058145065 -0.06738841 -0.20992377
164 -0.18061362 -0.6030905 0.04036581 -0.20631649 0.3220897 0.04333598 -0.16780247 0.2845031 0.22661981 -0.11800399 -0.26134384 0.16459696 0.1060339 -0.28331712 -0.0020281558 -0.2045846 -0.1731589 0.09823708 0.0007334819 -0.033854242 0.17137499 -0.07440551 -0.05110392 0.045111723 -0.2074408 0.2178369 0.066515885 -0.039803687 -0.051657274 -0.18243524
75 -0.21274027 -0.66711396 0.04826027 -0.24371704 0.3545967 0.06342966 -0.15607451 0.29532492 0.25227898 -0.12332805 -0.25983578 0.15782355 0.096406594 -0.31641114 0.0049468162 -0.23348589 -0.16762933 0.0948738 0.010750328 -0.004228815 0.19935957 -0.092316404 -0.059939533 0.05963615 -0.25760016 0.21508847 0.049575694 -0.038344774 -0.06924683 -0.22053048
201 -0.20617278 -0.6917727 0.039338294 -0.2011459 0.33531606 0.022027085 -0.19298875 0.31929708 0.29902753 -0.12430339 -0.26532087 0.15438959 0.10588369 -0.31190744 0.017841803 -0.25987008 -0.18969606 0.10562523 0.023138057 -0.0060679954 0.2102123 -0.06852557 -0.0338585 0.07143587 -0.22323383 0.22565317 0.03413702 -0.068839654 -0.048142083 -0.1848584
15 -0.28023937 -0.81502515 0.070878044 -0.22496805 0.39244846 0.050875813 -0.18394047 0.32750908 0.31774247 -0.16426936 -0.29395738 0.1874117 0.14620674 -0.374716 0.02773403 -0.29929572 -0.23390651 0.088863045 -0.03173795 -0.041625243 0.26604488 -0.07784316 -0.0104819825 0.08858435 -0.28705385 0.2766809 0.047024332 -0.088666305 -0.086414225 -0.22649512
19 -0.21847269 -0.75470823 0.06408029 -0.24515049 0.38071203 0.032491855 -0.19586535 0.32766518 0.28097546 -0.15752561 -0.34196085 0.19198366 0.13945557 -0.36305508 0.0038847968 -0.27254897 -0.2524088 0.106838346 -0.0014813137 0.0058818017 0.22790943 -0.08997642 -0.0008743367 0.10371452 -0.3023482 0.31398368 0.052791722 -0.05231273 -0.08652991 -0.23634191
124 -0.3019692 -0.8917438 0.037718933 -0.21457884 0.4244711 0.040088218 -0.18577749 0.35738775 0.37251824 -0.18671684 -0.31213722 0.20826513 0.16966969 -0.40215236 -0.00703533 -0.30952698 -0.21957704 0.08751559 -0.007833071 -0.04126432 0.28917104 -0.08404536 -0.037679523 0.08201617 -0.30013955 0.30270174 0.043946605 -0.118596375 -0.10950343 -0.24038708
127 -0.2396565 -0.7083088 0.07086433 -0.18995896 0.35780418 0.038784023 -0.18357395 0.31452572 0.25821173 -0.1417389 -0.26893857 0.16465043 0.13615729 -0.35989013 0.029068675 -0.25384995 -0.2023326 0.10180999 -0.001234839 -0.01019429 0.20285548 -0.07172626 0.007883638 0.07341893 -0.26438782 0.27216366 0.059379056 -0.061970424 -0.096769266 -0.18174869
193 -0.22162737 -0.6959928 0.065285385 -0.18656346 0.3357122 0.03301536 -0.16318883 0.32732314 0.28136963 -0.14432912 -0.28022173 0.17350368 0.14362742 -0.3513479 0.007318362 -0.266379 -0.2115263 0.077522084 -0.024215907 -0.026408823 0.21769352 -0.09109726 -0.0040958407 0.06927717 -0.24839857 0.2658688 0.06145144 -0.058772262 -0.07314098 -0.1885563
68 -0.24682999 -0.7292338 0.05268623 -0.2204213 0.3971709 0.03731696 -0.18064594 0.32882753 0.2683336 -0.16385767 -0.32749498 0.1904884 0.14651273 -0.37429547 0.016319623 -0.27203 -0.24517268 0.11440979 -0.005286482 -0.005505608 0.22076583 -0.06955713 -0.010618876 0.107817784 -0.29920098 0.28683874 0.04571819 -0.05493877 -0.07605669 -0.22111718
206 -0.20289986 -0.6753755 0.078273974 -0.20858485 0.32308173 0.02667171 -0.1914947 0.31604582 0.26251265 -0.13792883 -0.27189326 0.17533135 0.12408414 -0.3362377 0.016801495 -0.24953592 -0.22764045 0.08589905 -0.027144177 -0.007941406 0.1880751 -0.057708282 0.0007467127 0.080108754 -0.25754982 0.2838534 0.03147329 -0.051982462 -0.09907307 -0.18107265
12 -0.24853027 -0.727451 0.062085062 -0.21083254 0.34647992 0.024696799 -0.19242118 0.31013182 0.26604688 -0.13403292 -0.26545084 0.18642417 0.1360257 -0.34282613 0.016550047 -0.24911118 -0.22786061 0.10474613 -0.007841029 -0.030513564 0.22030239 -0.06092383 0.000754961 0.07429302 -0.28331652 0.26797962 0.058432132 -0.069732375 -0.08552126 -0.1981988
65 -0.29022136 -0.84240824 0.023972563 -0.19686161 0.39648423 0.0012179184 -0.16497922 0.31235063 0.3467692 -0.184076 -0.28187466 0.1843223 0.16614391 -0.36630866 0.002267843 -0.31663582 -0.2074931 0.089668974 -0.0064809727 -0.020033723 0.27098274 -0.10073683 0.005969659 0.10186407 -0.23505938 0.26583982 0.046018146 -0.08298072 -0.09736211 -0.20362656
48 -0.25750956 -0.7524326 0.04508223 -0.18912095 0.34086955 0.023969045 -0.16760896 0.27745953 0.2972851 -0.15786691 -0.2888604 0.18209441 0.15039824 -0.32689518 0.02129305 -0.29423404 -0.20142886 0.07185428 -0.012420249 -0.008588604 0.24433342 -0.08579798 -0.02778096 0.06998967 -0.23750855 0.253164 0.03842437 -0.09895996 -0.09811846 -0.20890853
49 -0.19645777 -0.6928904 0.04898055 -0.18217176 0.3399691 -0.0077289734 -0.17718892 0.29494417 0.30797076 -0.13847409 -0.24915758 0.14714848 0.09312082 -0.32659015 0.008157774 -0.29235744 -0.1904298 0.08859909 0.020253498 -0.01194167 0.20909245 -0.06499994 -0.0031033666 0.07664917 -0.2162995 0.23182036 0.024050573 -0.07955625 -0.05605534 -0.20620789
189 -0.25947246 -0.69122374 0.0047344184 -0.21356034 0.36711618 0.045623757 -0.19104518 0.31197846 0.28453794 -0.0979754 -0.27783114 0.18653484 0.12851846 -0.3526885 0.016210638 -0.27340662 -0.16947463 0.106604025 0.012317394 -0.033672966 0.20398892 -0.057266515 0.00022070808 0.09829258 -0.20052503 0.24055651 0.03148519 -0.04484712 -0.0874389 -0.22582658
73 -0.24192165 -0.69928265 0.052733548 -0.25478062 0.3970534 0.055216163 -0.16939802 0.33081076 0.2606934 -0.15549289 -0.3140848 0.17577778 0.11192406 -0.32561383 0.0039260304 -0.26499024 -0.19833502 0.099041484 -0.010644554 -0.03229189 0.2075981 -0.09490858 -0.054855946 0.058564585 -0.2665737 0.24910727 0.0677539 -0.03735974 -0.0631946 -0.24507008
93 -0.29366878 -0.8833254 0.08208355 -0.21000855 0.39327052 0.045944065 -0.19889554 0.3649752 0.342946 -0.16732518 -0.31111956 0.19765978 0.15173279 -0.40886095 0.039582103 -0.32284102 -0.24361065 0.08643155 -0.0404832 -0.03740375 0.30331376 -0.09947384 0.011341833 0.077416256 -0.27968207 0.27613416 0.07666741 -0.10584115 -0.08448484 -0.19994986
110 -0.19115067 -0.7125487 0.03576127 -0.21165314 0.35848016 0.0024668113 -0.17743663 0.3179944 0.31026497 -0.12897186 -0.2968822 0.12613182 0.120155916 -0.31716353 -0.00017800907 -0.29084226 -0.16686824 0.103886425 0.02448607 -0.022437975 0.21972299 -0.04909216 -0.030143904 0.112705365 -0.22492045 0.21966411 0.035091624 -0.05375771 -0.06688492 -0.18771675
13 -0.20254216 -0.7201054 0.046183296 -0.23184898 0.36804113 0.02326261 -0.19184679 0.30825964 0.31277177 -0.1261739 -0.2966151 0.13988264 0.11933088 -0.35510653 0.005548255 -0.27976036 -0.20101233 0.09748735 0.013582412 -0.052438427 0.2190678 -0.07632253 -0.04309573 0.09464482 -0.25094238 0.23963563 0.07245794 -0.05378258 -0.06599976 -0.21589753
122 -0.22585107 -0.7761693 0.02781296 -0.2153082 0.43662113 0.063672625 -0.2384709 0.32766488 0.31789038 -0.17170948 -0.3259662 0.18915585 0.14546895 -0.3549918 0.0085330345 -0.30624267 -0.23274198 0.09410364 -0.041798852 -0.023219498 0.2347802 -0.1363001 -0.052485604 0.097527586 -0.27889365 0.29540583 0.09988814 -0.07353069 -0.09088409 -0.2601371
37 -0.23540564 -0.7077875 0.055445097 -0.20469989 0.36702335 0.032709252 -0.20363447 0.31650245 0.3174704 -0.13017236 -0.2782876 0.16120096 0.12255467 -0.34926334 -0.009059752 -0.26953462 -0.19925614 0.09194051 0.031958222 -0.047296148 0.19067647 -0.06847625 -0.010128855 0.10986815 -0.23205835 0.23937581 0.063442916 -0.07047379 -0.05817144 -0.20798077
174 -0.2789308 -0.81116694 0.06649824 -0.19912858 0.38617548 0.05512928 -0.1953643 0.32610255 0.3435247 -0.17421775 -0.29905528 0.20671473 0.14110707 -0.37580717 0.0121066 -0.3015157 -0.22418684 0.079899 -0.01377777 -0.042237163 0.26956922 -0.09090118 -0.026393421 0.10297772 -0.26687953 0.29555598 0.056376245 -0.077421725 -0.11417472 -0.21084596
41 -0.287152 -0.73251605 0.09349914 -0.2500398 0.39001238 0.05600171 -0.16021237 0.3235938 0.28132924 -0.11225457 -0.28974938 0.21247445 0.092104234 -0.3413105 0.026787197 -0.20519903 -0.18192936 0.11270416 0.02394607 0.0051381695 0.19242416 -0.11437668 -0.052618425 0.05404599 -0.28152055 0.25696477 0.03798893 -0.055164274 -0.068613425 -0.24481627
132 -0.22602437 -0.68914664 0.040530555 -0.2286838 0.34911868 0.025576334 -0.20154817 0.3145486 0.29254535 -0.13145082 -0.2933446 0.15422775 0.11854868 -0.31780636 0.02038895 -0.28617713 -0.19196106 0.0983679 0.02135556 -0.022276733 0.19816238 -0.045492478 -0.035192702 0.107728265 -0.2292112 0.25621718 0.044450156 -0.07322485 -0.05125314 -0.19258101
190 -0.22358617 -0.66463685 0.037976027 -0.2465316 0.38542598 0.072308026 -0.15954998 0.31737706 0.2665231 -0.13757041 -0.28552288 0.16843925 0.1024389 -0.30746174 -0.009494521 -0.24712254 -0.1937425 0.109988905 -0.019146316 -0.03438432 0.18418343 -0.0965454 -0.047743615 0.08052524 -0.24639854 0.24899234 0.05372231 -0.027653841 -0.07163086 -0.22823066
172 -0.23072015 -0.631963 0.05159058 -0.22999135 0.34596333 0.03243398 -0.14535677 0.30224448 0.25869513 -0.08260872 -0.26074642 0.18522637 0.1042456 -0.30627745 0.0013281769 -0.21908997 -0.1627486 0.10531681 -0.00071000936 0.007804809 0.17704403 -0.08581326 -0.03561859 0.0443448 -0.25776777 0.21474107 0.044304285 -0.044552214 -0.06416092 -0.20768659
181 -0.22313666 -0.64029163 0.055521227 -0.21385005 0.30888823 0.029726403 -0.15069236 0.2926093 0.2530903 -0.09808669 -0.23928037 0.18156523 0.11045512 -0.30903825 0.026723208 -0.23502448 -0.17308922 0.091209285 -0.0077119614 0.0074054413 0.16461645 -0.09264885 -0.011267309 0.051470634 -0.22580533 0.22424456 0.037071183 -0.06519462 -0.049585294 -0.20549451
196 -0.28171074 -0.83289653 0.034924 -0.19886734 0.37941015 0.0063460153 -0.17256048 0.3058754 0.3139165 -0.15618789 -0.2765922 0.18366022 0.14825508 -0.35505053 0.02324132 -0.30460286 -0.20310926 0.07646711 -0.040870193 -0.03672756 0.27038923 -0.09161551 -0.017065471 0.09495085 -0.25224409 0.27672142 0.069580875 -0.108441085 -0.11389182 -0.20141661
175 -0.24774238 -0.74491763 0.04008696 -0.24709654 0.4027334 0.0383628 -0.18971752 0.32647353 0.30075833 -0.16251183 -0.3261609 0.19411373 0.13705908 -0.3493856 0.011532529 -0.26487997 -0.23754829 0.11591309 -0.007340948 -0.013490562 0.21476518 -0.09002214 -0.0331821 0.083812445 -0.27934134 0.27100527 0.08049789 -0.050096538 -0.0743597 -0.25452635
195 -0.20915896 -0.6905799 0.07062937 -0.1969347 0.32814887 0.044696663 -0.18807155 0.31992438 0.25869724 -0.1358181 -0.27733156 0.17008461 0.13276522 -0.3455927 0.022036862 -0.24119806 -0.21013841 0.104139864 -0.0060588974 -0.011312504 0.20817184 -0.058790885 -0.019595472 0.097486645 -0.27121845 0.2739954 0.037226673 -0.07370097 -0.09892117 -0.17610832
35 -0.2679293 -0.73349506 0.011074837 -0.22734232 0.3561338 0.040190134 -0.19077058 0.3075068 0.2825793 -0.101991326 -0.29194656 0.19875582 0.11969947 -0.34492558 0.010804198 -0.29025722 -0.17131865 0.12837476 0.018830158 -0.007978632 0.2406753 -0.07713744 -0.025463762 0.11297798 -0.22005497 0.25683716 0.058802396 -0.043623686 -0.08353221 -0.22105178
33 -0.26819524 -0.8238267 0.06462775 -0.19028154 0.40211278 0.016844014 -0.19389224 0.35336328 0.33039135 -0.16273342 -0.28921092 0.18882109 0.14881968 -0.39491254 0.037205767 -0.28480068 -0.23035435 0.10385493 -0.039653912 -0.02920978 0.26924005 -0.08717068 0.0035056744 0.06916587 -0.28803018 0.27598852 0.04827403 -0.09513531 -0.08025971 -0.2030767
6 -0.2770639 -0.8595097 0.06322275 -0.19200729 0.403716 0.042289533 -0.1883791 0.35344642 0.33702356 -0.16626963 -0.30188447 0.19448304 0.15075216 -0.40213352 0.029570673 -0.30899417 -0.23658618 0.07966149 -0.01843892 -0.045624744 0.2702401 -0.10080597 -0.011632367 0.07222184 -0.26902223 0.27481458 0.066992834 -0.1195639 -0.097036354 -0.20083371
165 -0.28525203 -0.86555314 0.060358256 -0.20681795 0.41359437 0.05866894 -0.20713332 0.35677156 0.34557354 -0.15543383 -0.29787105 0.19149038 0.1647779 -0.40021795 -0.0033903404 -0.3026668 -0.22925268 0.0728001 -0.023118054 -0.041494727 0.29593837 -0.10718412 -0.020464674 0.08521245 -0.26165646 0.31576324 0.037443787 -0.11331268 -0.13060862 -0.24455906
179 -0.20315242 -0.6049546 0.017660651 -0.19998887 0.31913757 0.03308232 -0.1630155 0.27408457 0.26654068 -0.12781578 -0.2397929 0.14770132 0.10268767 -0.2993272 0.008285718 -0.2317632 -0.17258471 0.09286457 0.008780418 -0.0071328306 0.16998145 -0.07261845 -0.015111888 0.09423813 -0.19152158 0.19232592 0.03530667 -0.066010825 -0.049161274 -0.17334989
169 -0.20573649 -0.6992879 0.031686924 -0.20203155 0.36948076 0.016629562 -0.18863991 0.32720304 0.3162827 -0.13664635 -0.26948604 0.16954696 0.10570913 -0.3319281 0.002826674 -0.27282342 -0.202778 0.08880219 0.03398254 -0.023279559 0.21517642 -0.0728984 -0.013025579 0.08850258 -0.228125 0.22399443 0.058149863 -0.054121558 -0.05637696 -0.20295438
77 -0.2617612 -0.765212 0.08540433 -0.250971 0.38497373 0.059065398 -0.19295423 0.35443762 0.27852556 -0.102694064 -0.30045834 0.20613463 0.108430155 -0.34239042 0.031464204 -0.24653783 -0.17988348 0.11363865 0.030733101 0.007420103 0.19959474 -0.0907842 -0.041314617 0.0741417 -0.28151125 0.26886585 0.04944371 -0.062352896 -0.07809583 -0.2413708
101 -0.2579708 -0.7987682 0.028706312 -0.18950042 0.3867632 0.002978534 -0.1965921 0.30992225 0.3358299 -0.17277977 -0.28872794 0.17170796 0.15098792 -0.3529594 0.003483072 -0.31610304 -0.19714375 0.10185251 -0.0022198719 -0.02603842 0.2694748 -0.07891031 -0.016895454 0.1040472 -0.26245043 0.27213848 0.04649297 -0.09878172 -0.09409084 -0.20670493
142 -0.23056011 -0.73395187 0.027899921 -0.23356925 0.36994013 0.037181765 -0.19940083 0.3153157 0.29714635 -0.12994719 -0.30589232 0.14302687 0.12245398 -0.33633462 0.0018719294 -0.29755524 -0.17511597 0.11208452 0.017551458 -0.031818207 0.19978584 -0.07631933 -0.0403424 0.08193246 -0.21979736 0.24346913 0.06262939 -0.059949536 -0.06858399 -0.21183778
0 -0.22260669 -0.76543623 0.041061737 -0.25008845 0.38092914 0.033006698 -0.21965007 0.32892504 0.32648745 -0.14435886 -0.2892293 0.1475713 0.11568366 -0.35881191 0.00936796 -0.30533248 -0.18215302 0.107371666 0.019807175 -0.059174467 0.20030004 -0.08776274 -0.036604136 0.108715296 -0.24994665 0.2420232 0.06499699 -0.07798961 -0.083126254 -0.24775785
83 -0.23503816 -0.75704116 0.032281447 -0.20844327 0.43351787 0.08023098 -0.22047892 0.30293286 0.31436855 -0.14262266 -0.30021682 0.20302641 0.12186788 -0.35464785 0.010187538 -0.27887228 -0.22598572 0.07317665 -0.015536483 -0.03826245 0.23603821 -0.11080153 -0.050076738 0.08450395 -0.24325107 0.26280513 0.087192774 -0.061569568 -0.105469644 -0.24595183
42 -0.21812464 -0.65444726 0.039374776 -0.21249044 0.35570276 0.018406862 -0.17824705 0.3084826 0.28898063 -0.10821302 -0.25590062 0.15049338 0.099148616 -0.29980746 0.018553838 -0.25844088 -0.18510455 0.08040797 0.028216956 -0.02523282 0.20175502 -0.08028328 -0.012255644 0.09340733 -0.2136238 0.21789943 0.032341633 -0.049197197 -0.07026802 -0.1821081
133 -0.22947186 -0.68214446 0.043985743 -0.18517955 0.3259997 0.014709943 -0.17786857 0.29872495 0.28776908 -0.12045898 -0.2506896 0.14086534 0.102348335 -0.30446565 0.0085021425 -0.26885676 -0.19269206 0.08789389 0.009586368 -0.018521395 0.21103187 -0.06494127 -0.032301947 0.07311095 -0.23806451 0.23620857 0.050806873 -0.06997655 -0.05450274 -0.18130745
136 -0.27484313 -0.8578861 0.07867703 -0.22383666 0.41330424 0.051306855 -0.19137369 0.36230832 0.32877442 -0.16791227 -0.32343656 0.20914242 0.15756264 -0.40965587 0.03275527 -0.3015439 -0.23515673 0.09416051 -0.035109565 -0.04273145 0.25068504 -0.08510546 0.008504987 0.085677944 -0.2775921 0.28660896 0.054333303 -0.09561628 -0.10250154 -0.20564237
80 -0.22470517 -0.7157113 0.051626433 -0.18583298 0.3607475 0.046192754 -0.16243705 0.32529658 0.26977044 -0.14753003 -0.2898733 0.15873079 0.14772563 -0.33349288 0.012060501 -0.25654694 -0.21420796 0.10536645 -0.012987533 -0.023843197 0.21310014 -0.080532074 -0.011393967 0.08890859 -0.25607467 0.26079947 0.043161564 -0.08465941 -0.0772856 -0.20186369
31 -0.20585234 -0.7550208 0.03930464 -0.19828281 0.4299177 0.05851532 -0.22779237 0.2917997 0.30260202 -0.15999089 -0.3085055 0.20956227 0.14796871 -0.34650078 0.0145144425 -0.30254462 -0.23446287 0.08218331 -0.026147012 -0.030239018 0.24529596 -0.13660318 -0.05378669 0.10978959 -0.2465612 0.2870842 0.100632906 -0.043362807 -0.096524775 -0.24143292
173 -0.19593953 -0.67154413 0.051375 -0.19328237 0.3444782 0.020321073 -0.17976862 0.31520826 0.29477724 -0.113730274 -0.27521443 0.13308395 0.098587625 -0.3111117 0.009084104 -0.28005198 -0.17985965 0.11404494 0.023168609 -0.022543794 0.2047129 -0.07001222 -0.013277714 0.08736963 -0.2137839 0.23927212 0.04039651 -0.04432234 -0.055073105 -0.184823
143 -0.21965928 -0.77813125 0.05122905 -0.22758165 0.4080482 0.03901757 -0.20543198 0.33307293 0.32980022 -0.13947551 -0.31862324 0.16873144 0.1298473 -0.3615189 -0.0070361984 -0.2878031 -0.20619534 0.117197245 0.028906483 -0.056370694 0.21583842 -0.10088284 -0.02461936 0.10534604 -0.25876647 0.27329212 0.05643947 -0.05334622 -0.08178494 -0.24169882
29 -0.2703937 -0.78979564 0.029065536 -0.19283822 0.37312907 0.0056135203 -0.16523054 0.28142786 0.31455043 -0.1556061 -0.27123335 0.1996436 0.13277006 -0.35889128 0.018513126 -0.30214918 -0.22180551 0.06108997 -0.012884938 -0.025842352 0.27047336 -0.09823526 -0.028674433 0.07649274 -0.26077333 0.24229218 0.057876308 -0.10283146 -0.08172665 -0.19105755
140 -0.23293652 -0.7936219 0.041443087 -0.26241955 0.43612364 0.023814019 -0.22748144 0.34296694 0.34800914 -0.16810781 -0.31606513 0.17371862 0.13327305 -0.38792336 0.003665752 -0.27834085 -0.2147362 0.1335499 0.018454922 -0.045233745 0.21249144 -0.10184996 -0.054399535 0.08899295 -0.28769588 0.2867487 0.08896045 -0.0678442 -0.06697709 -0.2532664
23 -0.26909864 -0.80897045 0.03475295 -0.20652929 0.39867622 0.05670353 -0.19947203 0.35495436 0.34616673 -0.16835843 -0.31084728 0.19401701 0.1498886 -0.39113504 -0.006401206 -0.28969315 -0.22052214 0.099424675 -0.0002235528 -0.017288703 0.2595532 -0.098838314 -0.043320425 0.104124285 -0.26558244 0.28137666 0.035442993 -0.10681978 -0.11852234 -0.2161923
38 -0.25227678 -0.80814373 0.061981592 -0.19382139 0.3612561 0.02060833 -0.19225757 0.30772173 0.33012128 -0.16729487 -0.2883061 0.18771698 0.16103172 -0.37200698 0.00536188 -0.28663355 -0.21824537 0.09269637 -0.017365137 -0.026367985 0.24695444 -0.07693267 -0.0009910534 0.07490203 -0.27385172 0.26604262 0.0653914 -0.11091043 -0.08370756 -0.20953025
114 -0.23558378 -0.7754336 0.0433107 -0.23866718 0.37950036 0.022114404 -0.21657354 0.34128898 0.33223045 -0.15243717 -0.30411145 0.16477291 0.12056672 -0.34593824 0.015551069 -0.29842234 -0.18520193 0.12475997 0.01257228 -0.04408932 0.21216233 -0.06751855 -0.036139507 0.11030619 -0.23907916 0.2646479 0.0551946 -0.07465677 -0.09174722 -0.242467
144 -0.24766925 -0.79107887 0.050153464 -0.1936635 0.39692846 0.043685686 -0.18541119 0.35460204 0.3009907 -0.14528722 -0.2985651 0.1876227 0.14219636 -0.3775506 0.034220178 -0.27440974 -0.21746457 0.10864739 -0.022124909 -0.030084133 0.2566153 -0.084377214 -0.014074641 0.07410567 -0.26624373 0.2677315 0.04295955 -0.07522209 -0.07433002 -0.21996208
58 -0.24237953 -0.7932026 0.040067874 -0.2513042 0.3937368 0.039887793 -0.2113528 0.36070698 0.32934698 -0.14406204 -0.30632967 0.16930884 0.14417525 -0.35925084 0.0069043012 -0.31422055 -0.21716902 0.11997436 0.016595827 -0.05129564 0.21372378 -0.101840734 -0.034688782 0.0872467 -0.25561115 0.25395563 0.04457976 -0.08191601 -0.077577725 -0.22033353
180 -0.24725223 -0.6856665 0.06855049 -0.21190773 0.36358705 0.034313917 -0.16107802 0.30442655 0.28446192 -0.093599655 -0.27226108 0.17952423 0.09701431 -0.31324476 -0.00044040842 -0.24161857 -0.18829516 0.10991729 0.014572404 -0.00043645717 0.18421954 -0.087435596 -0.038297314 0.0526524 -0.2528127 0.2534908 0.055950746 -0.04184577 -0.06783116 -0.23191045
54 -0.2421596 -0.76376694 0.0561216 -0.21557099 0.37346646 0.017657066 -0.20456511 0.3174936 0.32487604 -0.15476175 -0.31303748 0.1464621 0.12798187 -0.3485671 -0.008482729 -0.28692383 -0.20917419 0.09660606 0.026916362 -0.04782255 0.21023925 -0.078919776 -0.017239103 0.114233084 -0.2426874 0.23609567 0.047776036 -0.07138066 -0.081639424 -0.2363629
52 -0.2464938 -0.6867069 0.06831714 -0.25737873 0.36233404 0.051402748 -0.16042747 0.31746265 0.27041838 -0.14256318 -0.2947121 0.1843119 0.11054522 -0.3291795 -0.008018862 -0.2538143 -0.18260564 0.1229854 -0.0070228935 -0.021668065 0.20555104 -0.09226674 -0.061079495 0.056191273 -0.28189096 0.26120454 0.059738833 -0.036703233 -0.061876237 -0.23259589
108 -0.2173337 -0.6758201 0.020559514 -0.22064407 0.3605021 0.017896954 -0.17672268 0.325534 0.29205713 -0.109149866 -0.2653735 0.13209002 0.110990256 -0.33325553 0.0054777907 -0.27844334 -0.18278223 0.094397634 0.014526123 -0.0066531594 0.21419364 -0.047660265 -0.009975361 0.10215931 -0.22912298 0.24025503 0.02129366 -0.06814601 -0.06079739 -0.21474674
204 -0.26222438 -0.6681739 0.070404865 -0.22009747 0.34440908 0.055423986 -0.16871856 0.30209306 0.27783972 -0.08859243 -0.26745066 0.19356139 0.09672576 -0.3312028 0.012169272 -0.21323216 -0.17986919 0.10841547 0.024117282 0.005746182 0.18048696 -0.075394064 -0.027103122 0.05187095 -0.26697475 0.23336881 0.056163833 -0.06386512 -0.05545244 -0.23432441
24 -0.20024382 -0.7007253 0.04765461 -0.20299117 0.36956194 0.01472966 -0.19962235 0.32375422 0.31742197 -0.12137262 -0.2698924 0.13988586 0.12076406 -0.34793276 -0.0009227491 -0.2939346 -0.18858239 0.09898522 0.032173358 -0.041815832 0.20238827 -0.06012849 -0.021039397 0.1120206 -0.22042519 0.24761336 0.044043463 -0.07335017 -0.063684836 -0.19684464
191 -0.24550988 -0.7043329 0.06118917 -0.20497265 0.3704877 0.025664495 -0.16361262 0.32287163 0.2769338 -0.15391918 -0.26409858 0.15647057 0.14173369 -0.359643 0.025184646 -0.2525663 -0.20109443 0.10433951 -0.030431924 -0.030850673 0.20200554 -0.08948648 0.0037199003 0.07961445 -0.2468096 0.2632194 0.065472916 -0.09051427 -0.077912614 -0.1846826
39 -0.25930938 -0.760017 0.052778356 -0.23981088 0.41319558 0.046924822 -0.19234319 0.35435948 0.2899673 -0.16061954 -0.33140862 0.17524719 0.14131033 -0.3763469 0.010713884 -0.29002497 -0.2427896 0.122005895 -0.015859718 -0.007842287 0.2368621 -0.07802611 0.0023862736 0.10409964 -0.30838028 0.29841712 0.052319754 -0.047462896 -0.09011992 -0.23721425
98 -0.21687926 -0.7379412 0.03770176 -0.23062944 0.38844278 0.022345576 -0.18072157 0.34107542 0.27321452 -0.15323359 -0.30032873 0.16361703 0.14880157 -0.35044175 0.027122628 -0.29028702 -0.20696448 0.11168789 -0.010750815 -0.013479166 0.20001774 -0.08780108 -0.006367345 0.10415718 -0.29076543 0.2861249 0.05811666 -0.05512806 -0.0757647 -0.2404582
199 -0.25480354 -0.80245143 0.039316412 -0.24111651 0.41309896 0.02069226 -0.20810993 0.35744882 0.32879826 -0.16271406 -0.31684652 0.16974777 0.1068143 -0.37218457 -0.010483018 -0.28522348 -0.19494627 0.10894561 0.021306189 -0.050226666 0.2174224 -0.0853273 -0.049365696 0.08952162 -0.2844801 0.2655468 0.07042688 -0.06831019 -0.09228214 -0.25822046
10 -0.21883261 -0.7521671 0.02520399 -0.21214062 0.42068952 0.077211425 -0.2026808 0.31539616 0.3218622 -0.16799174 -0.30362415 0.19601206 0.117350295 -0.3265737 0.0035502508 -0.27167478 -0.20764667 0.10171427 -0.032394793 -0.02407347 0.23774998 -0.1129287 -0.03248483 0.109399825 -0.26450714 0.27017924 0.08546353 -0.07277475 -0.0927025 -0.24621388
138 -0.26818195 -0.77974737 0.032789987 -0.19890162 0.36133847 0.016083244 -0.18950202 0.3054518 0.31264964 -0.16187885 -0.28965014 0.18770039 0.12859514 -0.36108375 0.019828863 -0.2727111 -0.19903074 0.078166075 -0.02514247 -0.024771806 0.24828406 -0.08055574 -0.017307779 0.07041094 -0.25906584 0.24864572 0.06780979 -0.0995368 -0.0677606 -0.19252923
4 -0.2364679 -0.7052154 0.06324959 -0.17745847 0.35767773 0.018474793 -0.18967056 0.33200502 0.28018853 -0.15725702 -0.25604874 0.17321089 0.1564311 -0.3550422 0.014550286 -0.26622474 -0.20952167 0.0800037 -0.022358574 -0.011198283 0.22770615 -0.07992116 -0.0103792865 0.07167065 -0.2518603 0.27194855 0.041753307 -0.07302467 -0.07215467 -0.19450496
103 -0.23471262 -0.7629521 0.059492588 -0.23194595 0.38846928 0.03551906 -0.19832839 0.33399355 0.28165415 -0.1565635 -0.33654425 0.16948605 0.12920922 -0.37467778 -0.0023370085 -0.2723772 -0.23346196 0.13061844 -0.018895756 -0.024861734 0.24284936 -0.079764046 -0.030697867 0.09873293 -0.30447164 0.28891903 0.07013229 -0.056770526 -0.085620895 -0.24891259
156 -0.22214389 -0.8043497 0.020530349 -0.22689335 0.46046874 0.07795267 -0.23142664 0.33143103 0.33843228 -0.17166997 -0.34590834 0.20932673 0.12003856 -0.3397451 0.029317047 -0.31215855 -0.21255943 0.07139951 -0.037628032 -0.020113025 0.23273823 -0.12643051 -0.03243545 0.09977765 -0.26808205 0.28241447 0.08011445 -0.0806715 -0.07941574 -0.26737607
9 -0.28035554 -0.7298459 0.07705997 -0.264777 0.38573712 0.059082154 -0.17391288 0.3421351 0.29101464 -0.098545395 -0.291823 0.22197573 0.10632032 -0.364619 0.019429823 -0.225014 -0.19214089 0.12287024 0.015055667 0.006239805 0.18297145 -0.08555288 -0.02838375 0.03953888 -0.29811144 0.2668489 0.047160976 -0.077493556 -0.073617734 -0.23365124
67 -0.2687934 -0.8466492 0.06579321 -0.2648467 0.46387404 0.037549827 -0.2278085 0.3581821 0.36254397 -0.16022943 -0.33453754 0.17802899 0.12278106 -0.42343622 0.01940072 -0.33281183 -0.22978158 0.11183465 0.0023884983 -0.05138455 0.22967716 -0.11125048 -0.036328163 0.08778439 -0.28431624 0.31182688 0.08684005 -0.08075453 -0.073829465 -0.28250235
192 -0.22691865 -0.67701876 0.046872407 -0.16965854 0.3317013 0.027305566 -0.18179351 0.31329584 0.27446058 -0.15305457 -0.26385692 0.14950065 0.12334758 -0.33516246 -0.0016959527 -0.25237527 -0.18666223 0.09929196 -0.02224982 -0.021366231 0.21281454 -0.08440676 -0.021610131 0.08155753 -0.26235437 0.26619187 0.046624977 -0.08427468 -0.0935611 -0.17787266
90 -0.23332149 -0.8016394 0.025247732 -0.23669192 0.45744538 0.06846626 -0.2148509 0.31655645 0.3430966 -0.17504144 -0.3473724 0.18919419 0.1434396 -0.35013857 0.004454585 -0.29513973 -0.2315335 0.07473432 -0.028965885 -0.030472873 0.26739782 -0.13823617 -0.0290186 0.09203965 -0.2692035 0.29810637 0.075691015 -0.046703946 -0.11003769 -0.2345447
89 -0.2604853 -0.71300626 0.07043329 -0.2473294 0.38284314 0.06123508 -0.17519478 0.3096449 0.27724096 -0.11050364 -0.27981234 0.19942695 0.10264972 -0.34284583 0.027722811 -0.26383182 -0.19670954 0.088344015 0.020469576 -0.024193471 0.22056428 -0.095634736 -0.018812146 0.08150929 -0.27421018 0.25702345 0.054883394 -0.07429181 -0.08875001 -0.22501493
57 -0.2309593 -0.7471529 0.031168956 -0.25097516 0.39241445 0.0380304 -0.19933964 0.33456498 0.27989542 -0.15297885 -0.32452726 0.17906632 0.14708504 -0.36301443 0.0030866498 -0.29399085 -0.24022375 0.11766162 -0.009011062 -0.010600698 0.214374 -0.07896999 0.0050259526 0.08794238 -0.3037158 0.29904673 0.049421713 -0.038428616 -0.07189767 -0.2418226
17 -0.23167996 -0.70626986 0.060168214 -0.18822579 0.33590302 0.019959927 -0.1663491 0.32630444 0.2927437 -0.12542161 -0.26916578 0.1845872 0.13870266 -0.3314665 0.0066823117 -0.24598368 -0.2018792 0.079797275 -0.02223058 -0.0067114895 0.208966 -0.091525316 0.0005330463 0.06971103 -0.24671456 0.27200234 0.044393983 -0.07144034 -0.075277016 -0.18293488
5 -0.2771606 -0.8598719 0.052384842 -0.20694643 0.41001028 0.029531732 -0.17948519 0.33781934 0.34534937 -0.18262026 -0.2929957 0.21049966 0.14682907 -0.39335424 0.036667224 -0.31771144 -0.24735343 0.08063784 -0.039722014 -0.01716621 0.27774423 -0.07486806 -0.017706614 0.09981828 -0.28423095 0.2794823 0.055888653 -0.11637711 -0.10206069 -0.21191975
149 -0.24814042 -0.8215739 0.020886917 -0.22494644 0.46143574 0.07596645 -0.24947527 0.34588033 0.34830955 -0.16950639 -0.35646546 0.21316637 0.15132926 -0.34628248 0.021059942 -0.30359638 -0.24097541 0.07796198 -0.034082867 -0.014832951 0.27377045 -0.14741832 -0.025948087 0.096606456 -0.26352352 0.30542892 0.103778854 -0.04577472 -0.10720436 -0.23797265
176 -0.20743057 -0.706103 0.035996974 -0.21428348 0.36673623 0.05619793 -0.18892668 0.2912725 0.2864143 -0.13903959 -0.29920468 0.15619509 0.09914405 -0.31349248 0.018840782 -0.27031696 -0.18990828 0.09711974 -0.015931016 -0.033758447 0.19280542 -0.07499412 -0.030576907 0.0823328 -0.2314323 0.26168665 0.062075045 -0.07593814 -0.08940322 -0.20289375
117 -0.21799158 -0.7710566 0.04767814 -0.25079018 0.41452587 0.033185948 -0.21661757 0.32355443 0.314852 -0.16765922 -0.32588822 0.17116275 0.10629452 -0.37555605 0.015649298 -0.264875 -0.21875398 0.123732395 0.0067513436 -0.05915104 0.22561482 -0.07547077 -0.04884596 0.082436696 -0.26045874 0.26304233 0.066417366 -0.051231593 -0.093760915 -0.24486753
32 -0.2336704 -0.7316116 0.032660287 -0.21996826 0.37104687 0.03271587 -0.1740291 0.31876346 0.26656425 -0.14307298 -0.3081267 0.17922655 0.12825942 -0.3456596 0.012138388 -0.25923887 -0.213777 0.10144465 -0.024017159 -0.0132371625 0.21415976 -0.06353644 -0.022998305 0.082473345 -0.2891707 0.27027997 0.045069844 -0.043325394 -0.07089787 -0.22546634
3 -0.27731332 -0.79152185 0.07714513 -0.20068252 0.38909298 0.031059887 -0.17867933 0.3397906 0.29628786 -0.1680672 -0.28710628 0.17143984 0.13112839 -0.3946679 0.014303461 -0.30271345 -0.20756178 0.084153295 -0.029125389 -0.035249513 0.23377493 -0.077282906 -0.0090276515 0.10011061 -0.26054853 0.2707482 0.05486315 -0.08003489 -0.07635542 -0.1890782
53 -0.21804087 -0.72440916 0.02563489 -0.22464177 0.3843337 0.025518155 -0.20648772 0.33333504 0.29558876 -0.13869518 -0.30469108 0.16850689 0.10171007 -0.35274068 -0.006198754 -0.27678236 -0.17454569 0.118163325 0.0149638355 -0.017054806 0.22184163 -0.070179746 -0.038040936 0.083266586 -0.24228162 0.22803114 0.06574022 -0.073016874 -0.07050749 -0.22711858
151 -0.23856233 -0.6984826 0.079310805 -0.24050865 0.37126863 0.06342833 -0.17882128 0.29686767 0.26762602 -0.08302883 -0.2549054 0.17540187 0.08839809 -0.3117401 0.0149378795 -0.2263758 -0.18512729 0.09231341 0.036202986 0.00093635044 0.18373892 -0.07929832 -0.03332816 0.073899224 -0.27378905 0.2399642 0.06028912 -0.061276827 -0.054297533 -0.23029418
87 -0.28067458 -0.71658516 0.086624265 -0.23984389 0.37181106 0.06799181 -0.17952107 0.32254234 0.2945633 -0.10088552 -0.28912637 0.20625433 0.11823625 -0.34508118 0.027920555 -0.2160507 -0.19075404 0.105125144 0.015336829 -0.010911172 0.214219 -0.1084763 -0.0545993 0.05680225 -0.28079942 0.2593997 0.041294556 -0.0532378 -0.06830377 -0.2467719
94 -0.24264912 -0.75918156 0.038569607 -0.22903952 0.3809167 0.025701053 -0.2058846 0.35272866 0.27689508 -0.16018905 -0.3007987 0.1852728 0.12529698 -0.37753475 -0.0015467381 -0.26842663 -0.22771582 0.11932534 -0.019624023 -0.032397423 0.23485966 -0.07277506 0.00637567 0.108025566 -0.28443795 0.30265865 0.053518016 -0.05987696 -0.10186134 -0.23263489
88 -0.25452197 -0.74467707 0.06953044 -0.22880554 0.36806533 0.048803203 -0.19685796 0.33796078 0.2750695 -0.12453608 -0.2795398 0.19873135 0.105158284 -0.33921692 0.031661954 -0.2556948 -0.1790617 0.08919961 0.022507975 -0.013125713 0.21864246 -0.07993987 -0.044531766 0.08996669 -0.28427443 0.25853264 0.049123988 -0.08306922 -0.059764 -0.22819525
11 -0.22876307 -0.6895274 0.033733066 -0.20107251 0.35039315 0.0113901775 -0.19132207 0.32214817 0.29862273 -0.13192882 -0.2730467 0.15746933 0.10240352 -0.30946413 0.020804089 -0.28886333 -0.17759295 0.095360756 0.018307274 -0.030112483 0.2125581 -0.0656784 -0.008618041 0.0932736 -0.22379787 0.22049578 0.026486289 -0.058446188 -0.07083119 -0.21023911
148 -0.2730358 -0.6933963 0.081698924 -0.25358376 0.35915345 0.042939506 -0.17179109 0.33037642 0.2607477 -0.08877483 -0.30542317 0.20765322 0.09896683 -0.34958813 0.00904753 -0.20622732 -0.17905517 0.10298343 -0.00016102564 -0.01954868 0.20084123 -0.09375034 -0.044168152 0.06709783 -0.2806407 0.24943607 0.06727436 -0.064732425 -0.055705786 -0.22595903
36 -0.2206256 -0.78121054 0.058941375 -0.25097752 0.400152 0.011120163 -0.18739095 0.3512979 0.3205184 -0.13667314 -0.32199872 0.15682931 0.107809365 -0.35982415 0.01091491 -0.28638 -0.21352886 0.09747169 0.0028732982 -0.05434417 0.21626717 -0.06881207 -0.026597084 0.11027808 -0.25461352 0.2491617 0.0725657 -0.08569922 -0.08494045 -0.23646207
118 -0.22452673 -0.781768 0.060870104 -0.2502193 0.40214884 0.048290223 -0.19913985 0.3468193 0.31754723 -0.15105301 -0.32909632 0.1852496 0.13339436 -0.37135112 -0.010606505 -0.286551 -0.20882824 0.11863691 -0.0017493839 -0.040183652 0.2290748 -0.09296227 -0.050374072 0.09216452 -0.25648418 0.27839318 0.07424675 -0.06793312 -0.06684438 -0.23585503
70 -0.21304406 -0.7616432 0.03442695 -0.23860727 0.408641 0.043143418 -0.21133536 0.33644852 0.29747447 -0.14104535 -0.33392227 0.19701126 0.12382192 -0.3422037 0.00537855 -0.27613065 -0.21716514 0.0974784 -0.002514595 -0.011674328 0.22981632 -0.09229727 -0.031035133 0.07847427 -0.27309594 0.28404772 0.064914905 -0.06555538 -0.07689143 -0.22501233
111 -0.22000286 -0.7610602 0.038355313 -0.25172693 0.40835175 0.03214214 -0.22457822 0.33890387 0.3183127 -0.14867398 -0.31128323 0.14966545 0.109911986 -0.36998373 -0.013438397 -0.31479165 -0.20779307 0.1012726 0.021855975 -0.053851135 0.20317143 -0.06806465 -0.044285987 0.10595157 -0.2476359 0.24226993 0.06843829 -0.07617154 -0.059513718 -0.21822149
34 -0.25186652 -0.7029975 0.07238962 -0.21313873 0.37297687 0.03340404 -0.15852496 0.3037064 0.25892225 -0.1086603 -0.2898363 0.17760272 0.11223593 -0.3296421 0.007594598 -0.24463998 -0.1608194 0.101319775 0.030800056 0.0037457105 0.20072724 -0.08508387 -0.012604852 0.059136737 -0.25156188 0.22436605 0.061799627 -0.070483774 -0.07485553 -0.20147794
99 -0.22252125 -0.8026017 0.041014276 -0.22226919 0.45295972 0.067357704 -0.23206168 0.32262 0.34024864 -0.15251957 -0.33625326 0.18906799 0.15278974 -0.34401885 0.029525066 -0.2830244 -0.21157867 0.08162659 -0.039121818 -0.046035014 0.25549108 -0.12690951 -0.04780184 0.11096123 -0.27780285 0.30252096 0.0935165 -0.068478115 -0.08260864 -0.26059142
116 -0.246185 -0.77553785 0.05060346 -0.23027994 0.41730094 0.043446843 -0.20629862 0.33379376 0.32514343 -0.16829081 -0.3208559 0.17335825 0.12223475 -0.35739827 -0.01456989 -0.29000655 -0.1920592 0.116612114 0.013579853 -0.05339385 0.23428924 -0.07360358 -0.056943294 0.08534273 -0.25642675 0.24983522 0.06862886 -0.061044328 -0.0940355 -0.24917996
202 -0.15638967 -0.53961486 0.015059065 -0.15452246 0.28948903 0.029556908 -0.1355536 0.26063067 0.24243975 -0.10335033 -0.21074352 0.11771534 0.106918894 -0.27155912 0.0028079303 -0.21023159 -0.14628896 0.0940803 0.022251446 -0.0063503245 0.14944482 -0.047430605 -0.011822929 0.05643794 -0.19037575 0.19862917 0.03762826 -0.03614226 -0.043990918 -0.1656783
46 -0.24604231 -0.7020198 0.039600175 -0.19587748 0.34929508 0.04191366 -0.16909605 0.31312463 0.26794168 -0.110804655 -0.25794265 0.1754061 0.10318798 -0.31316236 0.0010231673 -0.28227386 -0.16457814 0.10249507 0.0051654475 -0.011217473 0.19566905 -0.07229793 -0.017875317 0.105585024 -0.2091217 0.21662323 0.028001957 -0.06603784 -0.06425929 -0.21585625
186 -0.23055062 -0.6562181 0.043022953 -0.18846914 0.3304256 0.02016615 -0.17764814 0.27254063 0.24014188 -0.12404094 -0.24171868 0.15233919 0.10918403 -0.30976462 0.027489243 -0.22013456 -0.15303832 0.10099147 0.019570345 -0.013489099 0.20181888 -0.07897434 -0.041379403 0.061352022 -0.22729774 0.2389258 0.055136096 -0.06869809 -0.08143673 -0.19759977
167 -0.20777775 -0.7207582 0.035846464 -0.22622252 0.36689767 0.010614269 -0.19557288 0.30404928 0.30926293 -0.1468031 -0.3005733 0.1542341 0.104898475 -0.32104206 0.018373504 -0.28611225 -0.18155773 0.11682229 0.0039586998 -0.03213622 0.1978748 -0.06513944 -0.011010283 0.09701587 -0.22570463 0.24498273 0.057673573 -0.08237343 -0.05546025 -0.20809656
134 -0.23874727 -0.7783267 0.044725988 -0.1960349 0.37269756 0.02266641 -0.17680076 0.32539096 0.33499527 -0.1390902 -0.29433116 0.16450822 0.12261388 -0.3704323 0.00022045584 -0.28309637 -0.19568375 0.09428199 0.0011758344 -0.03108938 0.2538567 -0.07559125 -0.032202724 0.087337464 -0.2652191 0.25382736 0.03155278 -0.06641106 -0.07814814 -0.214897
18 -0.215496 -0.6321182 0.009913198 -0.20174769 0.32740286 0.028827686 -0.18250398 0.28664178 0.2637908 -0.08240412 -0.2577512 0.17535642 0.1252316 -0.30905935 0.015463219 -0.26065272 -0.16792218 0.10363869 -0.0031825064 0.0010878749 0.20996496 -0.06934218 0.0023257467 0.08504732 -0.19036956 0.23219533 0.047278125 -0.048423313 -0.057434317 -0.18861045
145 -0.22988835 -0.7313645 0.032466605 -0.22232357 0.3761403 0.03424482 -0.20766045 0.32362962 0.31134263 -0.1448679 -0.29631177 0.13313417 0.09933778 -0.34699285 -0.012566846 -0.2917274 -0.19721268 0.097671814 0.013793133 -0.051788844 0.19664054 -0.066256106 -0.015643505 0.10275866 -0.23487483 0.24618012 0.06941362 -0.057997577 -0.053420708 -0.20626532
50 -0.25257182 -0.70981026 0.01391416 -0.19667573 0.3417251 0.024158573 -0.16963972 0.31461838 0.2856508 -0.104349665 -0.28396663 0.1760229 0.13626802 -0.35196814 0.0072970083 -0.27053905 -0.16091606 0.112189725 0.0141794225 -0.014117935 0.20475024 -0.06887203 -0.019674465 0.0981946 -0.21301845 0.24593528 0.045036476 -0.045723278 -0.07612405 -0.21316466
100 -0.25701642 -0.69703114 0.08262818 -0.2533594 0.38276282 0.046097886 -0.18325253 0.33657187 0.2886197 -0.10077357 -0.29397804 0.19345054 0.10895825 -0.3534917 0.0025559952 -0.2150931 -0.1731132 0.105940096 -0.004330581 0.004323607 0.19448732 -0.099770606 -0.03751121 0.07572403 -0.29017496 0.23126402 0.039213456 -0.05094631 -0.072275445 -0.23361808
61 -0.21255408 -0.6387497 0.044634383 -0.21065682 0.32264316 0.02903873 -0.15878347 0.27962086 0.26342988 -0.12674482 -0.266623 0.14285731 0.09310614 -0.30038202 -0.0010560028 -0.23031317 -0.15875827 0.10463938 -0.0061148712 -0.03368742 0.170231 -0.08032408 -0.03646366 0.05684471 -0.21280928 0.20141964 0.04877981 -0.053071182 -0.0634141 -0.2076695
119 -0.24110599 -0.7588353 0.049814343 -0.2354216 0.40137556 0.039732005 -0.19129963 0.33420983 0.27402088 -0.1687485 -0.33745584 0.1679967 0.12768023 -0.37421846 0.009796165 -0.29134563 -0.2325298 0.124636196 -0.014462044 -0.012641702 0.22590193 -0.073238544 -0.019396948 0.096804105 -0.28923503 0.27711323 0.051880296 -0.055207152 -0.08227428 -0.2205846
74 -0.22401617 -0.67920655 0.03714733 -0.22847143 0.34915426 0.047595385 -0.18140438 0.3124842 0.25177565 -0.14844798 -0.27795 0.173443 0.103161305 -0.3107162 0.015288341 -0.26315734 -0.18428326 0.10963775 0.012931688 -0.027014455 0.18561058 -0.0731782 -0.021042526 0.09679421 -0.27529916 0.26737353 0.04902023 -0.04753241 -0.062243596 -0.2039618
71 -0.20443793 -0.68089056 0.040748794 -0.22764412 0.36102065 0.04225894 -0.19125797 0.29583964 0.28330827 -0.12889406 -0.30059025 0.18267493 0.12659776 -0.3280117 0.018847866 -0.26430166 -0.19227554 0.10477191 0.0048104073 -0.015646026 0.18997113 -0.07319762 -0.04345259 0.086229555 -0.26779085 0.23418817 0.07536326 -0.049550332 -0.07202197 -0.21033128
194 -0.18596554 -0.6400942 0.024896545 -0.19956897 0.30747536 0.031803627 -0.17157769 0.2936216 0.2790722 -0.13237762 -0.26101798 0.14598401 0.11521917 -0.32075694 0.010212576 -0.25743926 -0.15253544 0.097092345 0.02601815 -0.03690683 0.2001211 -0.073485196 -0.019798568 0.06407916 -0.2090863 0.21900363 0.029925251 -0.07555242 -0.045833122 -0.18743399
102 -0.22527146 -0.738798 0.051242482 -0.24247763 0.38397643 0.0280876 -0.20653093 0.33362895 0.28867748 -0.16176277 -0.3182156 0.16377188 0.11374845 -0.3615287 -0.003782851 -0.27761248 -0.22288704 0.11774594 0.008563502 -0.029384198 0.20617689 -0.097018145 -0.034180827 0.07572627 -0.28394094 0.2586705 0.07456891 -0.06452157 -0.062231716 -0.23939914
182 -0.16394317 -0.5166035 0.029011121 -0.17352085 0.25359443 0.014102675 -0.11324652 0.20812295 0.19798432 -0.07417639 -0.20878536 0.1127351 0.07580175 -0.23896377 0.0045495005 -0.1986992 -0.12973823 0.06212234 0.012144751 -0.0001614439 0.14013499 -0.053795934 -0.031835232 0.04902112 -0.16724566 0.16687441 0.04505951 -0.0428313 -0.06405298 -0.15820736
153 -0.15829074 -0.5210517 0.038539123 -0.14938727 0.25340515 0.0020241307 -0.1437521 0.21669233 0.21737567 -0.10796802 -0.2019602 0.12154313 0.08752829 -0.22756895 0.012735587 -0.19863108 -0.14830263 0.06459076 0.016342627 -0.0034365002 0.14956363 -0.053164322 -0.012003914 0.06777278 -0.15973896 0.16467716 0.0396428 -0.04975783 -0.044010755 -0.15510535
115 -0.20577286 -0.7442612 0.056885917 -0.22880693 0.36906624 0.020686148 -0.20996983 0.30739617 0.29669395 -0.14262508 -0.3043257 0.14611638 0.11493428 -0.36019242 0.00248047 -0.27992836 -0.20747559 0.096390896 0.019850062 -0.054250196 0.19776931 -0.06570934 -0.017866073 0.08379609 -0.23163013 0.23759995 0.044477653 -0.056961033 -0.06288537 -0.2084394
92 -0.23652965 -0.6962961 0.018960683 -0.23237784 0.35966206 0.040065072 -0.17618136 0.29913804 0.29654697 -0.10696387 -0.27439812 0.17229998 0.119578175 -0.32177985 0.009659599 -0.2713506 -0.17218846 0.09143894 0.002283161 -0.036763746 0.2068033 -0.07335856 -0.021533584 0.07894839 -0.21214186 0.24939327 0.032982178 -0.04243185 -0.05894273 -0.19101334
104 -0.23623587 -0.6945918 0.07113601 -0.24269895 0.35038856 0.036678877 -0.16277854 0.30085567 0.26316658 -0.113564596 -0.26913714 0.18015797 0.10192765 -0.3088979 0.02381352 -0.2332256 -0.18605489 0.082141586 0.014168114 -0.0027417692 0.19738336 -0.07238639 -0.02582874 0.08252735 -0.24886179 0.2309153 0.045197718 -0.05919596 -0.061063677 -0.20164019
112 -0.18500455 -0.6578481 0.052672703 -0.19866955 0.3072269 0.0006921005 -0.15175043 0.30032358 0.2773683 -0.1325048 -0.25059453 0.1232877 0.090006344 -0.3178842 0.023391157 -0.25019264 -0.15907851 0.09543872 0.019382983 -0.011694248 0.195004 -0.08088112 0.0010500167 0.066630505 -0.22652587 0.2156355 0.041901696 -0.05828866 -0.06110812 -0.20103648
62 -0.18966852 -0.6610342 0.0228053 -0.20769885 0.33198825 0.018916154 -0.1930743 0.3131102 0.28933087 -0.13933271 -0.25719577 0.14143912 0.106060535 -0.3112984 -0.011124396 -0.24571812 -0.17553034 0.10045393 0.022687525 -0.025636088 0.18855083 -0.066156246 -0.033290233 0.09571836 -0.22066846 0.22484083 0.042198464 -0.065398894 -0.07712818 -0.19936939
56 -0.25011927 -0.75173044 0.021679275 -0.21100372 0.37713164 0.013560789 -0.18334338 0.31802267 0.30776384 -0.1390799 -0.2743739 0.16463155 0.106730476 -0.33683786 -0.008119981 -0.30454257 -0.1945895 0.083107196 0.012494301 -0.03791503 0.2323439 -0.08771584 -0.019272026 0.10718845 -0.2212864 0.24431826 0.029246628 -0.07808549 -0.095951535 -0.19931799
84 -0.26420632 -0.718346 0.080591604 -0.21896817 0.3864026 0.05913246 -0.1877634 0.31603378 0.28428277 -0.107440524 -0.27472255 0.18848953 0.1218515 -0.34410402 0.013383792 -0.23282492 -0.1849864 0.1070893 0.019680874 -0.007046374 0.1929098 -0.08373338 -0.020271324 0.075428754 -0.26359692 0.24413335 0.04802193 -0.055151634 -0.065407336 -0.23153146
21 -0.26494145 -0.71233004 0.03320091 -0.23763789 0.35208434 0.03295466 -0.19592775 0.3099736 0.29435164 -0.10226403 -0.28592435 0.18548416 0.13032982 -0.3646214 0.012541066 -0.27925858 -0.1863992 0.1081715 0.017808035 -0.01510745 0.23308577 -0.077726394 -0.02170093 0.101319 -0.23511943 0.24541992 0.055292208 -0.058530204 -0.07513011 -0.22043826
200 -0.2248497 -0.6442887 0.03259203 -0.20028618 0.31427175 0.014027426 -0.1804782 0.28512922 0.24391252 -0.105739005 -0.25111404 0.14796206 0.12274768 -0.31536856 0.025026122 -0.23854804 -0.16607124 0.09993959 0.01559364 -0.025324319 0.20571187 -0.071002275 -0.011390225 0.09444256 -0.20742853 0.19962166 0.025721556 -0.06998278 -0.07973119 -0.18139854
51 -0.2103129 -0.6799694 0.03713141 -0.19474953 0.3449876 0.025789056 -0.18325917 0.28900936 0.2907737 -0.11596642 -0.260743 0.14591058 0.10310933 -0.33367857 0.0058756196 -0.26634458 -0.17629275 0.10554891 0.0014626341 -0.044080194 0.1946076 -0.07721919 -0.015328465 0.07118316 -0.2244928 0.23106761 0.050421152 -0.070704415 -0.051156513 -0.1893736
170 -0.2365402 -0.74935174 0.03167981 -0.19442433 0.34900203 0.033788413 -0.18042482 0.29486138 0.30719224 -0.1575013 -0.27181128 0.16133958 0.14259277 -0.3567 0.016364688 -0.30196995 -0.17924806 0.09010468 0.008562222 -0.029287873 0.24745469 -0.078129776 -0.017760063 0.0886257 -0.2424771 0.23515782 0.059636176 -0.085362256 -0.10215989 -0.22216661
14 -0.24174918 -0.6803278 0.08014107 -0.23042126 0.35532436 0.04632384 -0.17719266 0.29148322 0.25395536 -0.09432208 -0.27960134 0.17880605 0.09557678 -0.31648195 0.018492635 -0.22354417 -0.16310306 0.091475844 0.02044026 -0.020176422 0.20385765 -0.06349653 -0.02880207 0.07695825 -0.24993452 0.24151498 0.061114203 -0.04640445 -0.081582986 -0.19474015
40 -0.22377196 -0.68335706 0.034457758 -0.20107831 0.37686506 0.047498234 -0.1955732 0.30788988 0.27218983 -0.15151909 -0.27392647 0.15685645 0.1150396 -0.3319444 -0.003754754 -0.2733435 -0.19744383 0.07803884 -0.01851833 -0.034065787 0.21849756 -0.08779405 -0.0105273295 0.09066274 -0.24904996 0.2505003 0.04844635 -0.06996989 -0.090908974 -0.22795528
55 -0.19914989 -0.6431602 0.04131993 -0.19268657 0.318994 0.012639822 -0.15091737 0.279649 0.2780166 -0.10327183 -0.24537969 0.15373364 0.09378732 -0.29269135 0.000444144 -0.24669985 -0.17006622 0.100233 0.0065214527 -0.016718749 0.20270807 -0.05780547 -0.022560285 0.076821804 -0.20924366 0.21848878 0.024276884 -0.06886369 -0.066356145 -0.17402355
106 -0.17202277 -0.60315585 0.03375019 -0.17175673 0.2946702 0.025507046 -0.1614339 0.2604003 0.23588258 -0.122904085 -0.23400187 0.1367181 0.0843657 -0.29320833 -0.01022834 -0.24021597 -0.14176661 0.07653417 -1.937244e-05 -0.003986575 0.16632397 -0.07011148 -0.031190535 0.06414933 -0.2155284 0.22217517 0.03670329 -0.06920433 -0.0638654 -0.17035246
205 -0.19031155 -0.6299509 0.046044327 -0.20056024 0.3246802 0.02323394 -0.17163144 0.28801322 0.24458243 -0.11658172 -0.2543129 0.16552652 0.09035723 -0.30414176 -0.0075880443 -0.2344022 -0.1722593 0.099301375 -0.007745702 -0.011051479 0.18173304 -0.07338577 -0.03527337 0.05757367 -0.24716514 0.23077968 0.046103835 -0.05632481 -0.05848848 -0.20987391
105 -0.19124983 -0.61264485 0.051323567 -0.17788568 0.30702168 0.018729905 -0.15242215 0.2803293 0.25107315 -0.112202145 -0.23008382 0.14997423 0.109456 -0.2758928 -0.006130383 -0.21933638 -0.14478014 0.08210594 0.018918425 -0.007968604 0.19114318 -0.05699274 -0.015542236 0.08715577 -0.2121325 0.21541044 0.04375526 -0.03616495 -0.066824995 -0.17793463
121 -0.18288603 -0.5678644 0.023789601 -0.16918378 0.2915226 0.03150259 -0.13512154 0.24725118 0.23623748 -0.09492802 -0.22998685 0.13898036 0.092901126 -0.29336476 -0.003880816 -0.23712972 -0.15825547 0.093575366 0.00948951 -0.029557131 0.18355277 -0.04491784 -0.009815148 0.08211304 -0.1788897 0.17968532 0.05116599 -0.048135243 -0.05006915 -0.18915023
185 -0.22064807 -0.6096074 0.03371901 -0.18850642 0.31404236 0.032454662 -0.15534247 0.27569935 0.25614318 -0.0944209 -0.23852564 0.14017938 0.11125701 -0.3091073 0.0075898436 -0.20995331 -0.15519296 0.09663071 0.0046713017 0.0027750665 0.18867625 -0.08261859 -0.035552993 0.08056833 -0.21770713 0.2291305 0.05092156 -0.052410915 -0.075168364 -0.2036296
66 -0.15959351 -0.53211766 0.03919044 -0.16682388 0.24460879 0.006731591 -0.13625513 0.24153534 0.20905542 -0.0854685 -0.21240704 0.117192805 0.10255105 -0.23436485 0.020598188 -0.18870842 -0.13722381 0.0838095 0.017630873 0.001872297 0.15879755 -0.04421518 -0.016195197 0.07934387 -0.17261545 0.1694108 0.033413623 -0.04059568 -0.051000386 -0.16247864
59 -0.19799289 -0.58213836 0.056023557 -0.19369681 0.3002344 0.044820603 -0.14169797 0.2526455 0.2262645 -0.09528218 -0.2400741 0.15687926 0.10293041 -0.27089098 -0.0044582286 -0.20793375 -0.14422967 0.07899375 0.0033794397 0.0015339841 0.1838443 -0.07648211 -0.023494916 0.058996815 -0.19535215 0.19069837 0.028469795 -0.058916427 -0.06088024 -0.18705866
150 -0.19053803 -0.59694093 0.06716527 -0.20259424 0.30615634 0.04196834 -0.15910342 0.25075454 0.23398773 -0.11141015 -0.23392844 0.14080872 0.088945515 -0.29568112 0.008472447 -0.2173857 -0.14496961 0.1001549 0.005429826 -0.0012989049 0.15227604 -0.08445257 -0.013890663 0.057323243 -0.23140289 0.21812196 0.042112492 -0.05548009 -0.058502533 -0.1736573
8 -0.18648425 -0.5813702 0.052315325 -0.17134248 0.2791446 0.034399092 -0.13446541 0.25254807 0.22485828 -0.08670949 -0.23211616 0.13790055 0.082882665 -0.26749685 0.022910975 -0.21573326 -0.14130494 0.07972956 0.020762937 -0.003909125 0.16152184 -0.065827675 -0.021111151 0.04742355 -0.19750044 0.21449272 0.04076306 -0.04017581 -0.06636028 -0.1607044
178 -0.11326096 -0.37451184 0.012603471 -0.11056073 0.20847836 0.010466488 -0.11196169 0.17534381 0.17554817 -0.061854497 -0.14166458 0.09795304 0.0765292 -0.18504772 0.0033045125 -0.15850165 -0.104193635 0.058944475 0.0057995836 -0.0046139057 0.11093771 -0.027019808 -0.021289224 0.04677757 -0.12072572 0.14378425 0.029931199 -0.031554915 -0.052529648 -0.10282601
152 -0.0685464 -0.22003283 0.009801884 -0.08047998 0.096952885 0.02400652 -0.068503715 0.10337668 0.090486735 -0.05576483 -0.09477152 0.063927464 0.03632717 -0.095069855 -0.0075809066 -0.091773726 -0.041948713 0.03386542 -0.00833578 0.0024417995 0.064079106 -0.013707669 -0.016150113 0.02805936 -0.06922364 0.073110074 0.013766743 -0.007524605 -0.013311823 -0.06498083
26 0.013329956 0.009496644 0.0035113578 -0.005522815 0.0071755364 -0.0092566125 0.0077476795 -0.006678274 -0.016395789 -0.0071869018 -0.0057819425 -0.014000651 0.014430194 -0.012061706 -0.005100349 0.011113874 0.006647582 -0.00039675547 -0.00563965 0.006123954 0.0146795 0.0036183617 0.013852112 0.008281025 -0.008077412 -0.0074027437 -0.015756914 -0.010025819 -0.008217206 0.013120714
44 -0.08086813 -0.2760072 0.0007842822 -0.09477042 0.14327203 0.013684353 -0.07614417 0.12869826 0.12530719 -0.046220418 -0.107801996 0.07213109 0.03437135 -0.12965414 0.009890598 -0.09875427 -0.08476301 0.024056287 -0.0002574004 -0.00096265285 0.08081783 -0.014890227 -0.022213945 0.043857496 -0.08287866 0.097644344 0.026914077 -0.013040877 -0.016333459 -0.08099555
